{"type":"NeuralNetwork","sizes":[196,10,10,1],"layers":[{"weights":[],"biases":[]},{"weights":[[-0.15041415393352509,-0.37812599539756775,-0.43684327602386475,0.04405859112739563,-0.2933889627456665,-0.3287225067615509,-0.34565427899360657,0.03644473850727081,-0.3171314597129822,-0.2350456267595291,-0.21077394485473633,0.023668205365538597,-0.2357919067144394,-0.24261732399463654,-0.2117299884557724,0.058972232043743134,-0.3725511133670807,-0.16915935277938843,-0.4852835536003113,0.03546685725450516,-0.3583855926990509,-0.4545244574546814,-0.10497681051492691,-0.07818949967622757,-0.34855467081069946,-0.15805642306804657,-0.26393720507621765,0.1935786008834839,-0.2362116128206253,-0.13945715129375458,-0.07920177280902863,0.1421596109867096,-0.1712043285369873,-0.4123002886772156,-0.33996981382369995,0.12413102388381958,-0.18333348631858826,-0.24177111685276031,-0.22220221161842346,-0.034711431711912155,-0.22539594769477844,-0.1070706769824028,-0.11354415118694305,0.11992629617452621,-0.16372300684452057,-0.3709051012992859,-0.4870876669883728,0.0037167654372751713,-0.10063895583152771,-0.3996756374835968,-0.17401789128780365,0.0635628029704094,-0.45051994919776917,-0.24428367614746094,-0.44239670038223267,-0.08038905262947083,-0.15270408987998962,-0.22046397626399994,-0.30833739042282104,-0.12867790460586548,-0.2969333529472351,-0.09604224562644958,-0.2116784304380417,0.020260460674762726,-0.29656240344047546,-0.43576207756996155,-0.1790473312139511,0.12336011230945587,-0.21323204040527344,-0.16108150780200958,-0.4549054205417633,0.16916978359222412,-0.43965616822242737,-0.18876609206199646,-0.2386157065629959,0.17604833841323853,-0.24696403741836548,-0.3806333541870117,-0.17576882243156433,0.1172620952129364,-0.09683840721845627,-0.13742919266223907,-0.3621812164783478,-0.18547265231609344,-0.38281407952308655,-0.26682326197624207,-0.22354863584041595,-0.11954338103532791,-0.4074355959892273,-0.23192690312862396,-0.3893486559391022,-0.11620204150676727,-0.11387822031974792,-0.21029864251613617,-0.18006041646003723,-0.16601575911045074,-0.269667387008667,-0.3847656846046448,-0.4198068380355835,-0.16127809882164001,-0.25449004769325256,-0.317373126745224,-0.1029045358300209,-0.03448305279016495,-0.3966677486896515,-0.4258781373500824,-0.250727117061615,-0.05123582109808922,-0.25128114223480225,-0.40164414048194885,-0.20617671310901642,0.10652035474777222,-0.2677929401397705,-0.05330489203333855,-0.3029632270336151,-0.09535794705152512,-0.142714723944664,-0.1735006421804428,-0.06855396181344986,0.061052024364471436,-0.4823370575904846,-0.2764114439487457,-0.4581851065158844,0.00793791376054287,-0.299468070268631,-0.35481664538383484,-0.2162322700023651,-0.10439731180667877,-0.1493188887834549,-0.46313366293907166,-0.45105183124542236,-0.10596538335084915,-0.40386882424354553,-0.33766359090805054,-0.31064486503601074,-0.09832308441400528,-0.28408730030059814,-0.40149542689323425,-0.3899570405483246,-0.10890360176563263,-0.0657418891787529,-0.08464686572551727,-0.44887086749076843,0.1323668658733368,-0.4364491105079651,-0.3897542357444763,-0.4170406758785248,0.20061342418193817,-0.21012072265148163,-0.4741792678833008,-0.3631979823112488,0.19511602818965912,-0.46500861644744873,-0.1419096440076828,-0.17464569211006165,0.05638197436928749,-0.2509852945804596,-0.20771686732769012,-0.2011384516954422,-0.09945378452539444,-0.18500445783138275,-0.402172714471817,-0.42971041798591614,0.210381418466568,-0.31647658348083496,-0.23882366716861725,-0.43502652645111084,0.00480699585750699,-0.32449305057525635,-0.0873931273818016,-0.14210812747478485,0.20421309769153595,-0.2478206753730774,-0.05024491623044014,-0.31690865755081177,-0.17822517454624176,-0.2550237476825714,-0.36104196310043335,-0.18790337443351746,-0.13474422693252563,-0.2543277442455292,-0.07612107694149017,-0.15909557044506073,0.13636434078216553,-0.17278307676315308,-0.23059211671352386,-0.19066667556762695,0.20176564157009125,-0.24493490159511566,-0.14488764107227325,-0.2762244939804077,-0.10136894136667252,-0.40189629793167114,-0.510614275932312,-0.38973718881607056,-0.04489500820636749],[-0.0659198984503746,-0.3598189055919647,-0.4110495150089264,0.5418969988822937,-0.46314725279808044,-0.28470131754875183,-0.26652586460113525,0.7474324107170105,-0.540162980556488,-0.45507296919822693,-0.5646358132362366,0.7962904572486877,-0.4950959086418152,-0.3653770983219147,-0.37158825993537903,0.6393893361091614,-0.5320606827735901,-0.5425310134887695,-0.36369606852531433,0.67023104429245,-0.045884449034929276,-0.019266203045845032,0.052936334162950516,0.7599517703056335,-0.14394980669021606,-0.26369377970695496,-0.40589141845703125,0.7305554747581482,-0.4976155757904053,-0.434730589389801,-0.5173022150993347,0.47877517342567444,-0.3757047653198242,-0.252379447221756,-0.21616405248641968,0.709995448589325,-0.692254364490509,-0.4811613857746124,-0.5256127715110779,0.7000183463096619,-0.6201354265213013,-0.41621410846710205,-0.6530932784080505,0.5180560350418091,-0.5622520446777344,-0.7093259692192078,-0.8069020509719849,0.43815097212791443,-0.35069504380226135,-0.562786340713501,-0.5157946348190308,0.7630987763404846,-0.30012208223342896,-0.5117642879486084,-0.5154362916946411,0.628045380115509,-0.6173141002655029,-0.6000449061393738,-0.43011346459388733,0.7121638655662537,-0.6316947937011719,-0.8384946584701538,-0.7274856567382812,0.7123488783836365,-0.5042810440063477,-0.5508356094360352,-0.4362449049949646,0.48957040905952454,-0.38665586709976196,-0.3749431371688843,-0.12747979164123535,0.5535376667976379,-0.925870954990387,-0.8877933621406555,-0.942427396774292,0.44405898451805115,-0.7571732997894287,-0.7423189878463745,-0.6254626512527466,0.7548615336418152,-0.39334043860435486,-0.13570158183574677,-0.38503575325012207,0.7808439135551453,-0.7203215956687927,-0.5609158873558044,-0.6378875374794006,0.5680922865867615,-0.7191296219825745,-0.6190273761749268,-0.4952784776687622,0.7474270462989807,-0.030626116320490837,-0.18350127339363098,-0.013642684556543827,0.6985549330711365,-0.45615172386169434,-0.38349729776382446,-0.2411894053220749,0.43678250908851624,-1.0659594535827637,-0.8895850777626038,-0.9836775660514832,0.46924570202827454,-0.8008503913879395,-0.7749548554420471,-0.4448125958442688,0.6778386235237122,-0.34762370586395264,-0.47464659810066223,-0.42167070508003235,0.5902714133262634,-0.7008506059646606,-0.7118634581565857,-0.552161455154419,0.6059812903404236,-0.5268840789794922,-0.3273884356021881,-0.3342561423778534,0.4404517114162445,-0.21538487076759338,-0.40888670086860657,-0.2605755031108856,0.654743492603302,-0.7683290243148804,-0.7600439190864563,-0.6114171743392944,0.6343461871147156,-0.5424295663833618,-0.36418983340263367,-0.38216298818588257,0.7317717671394348,-0.47733065485954285,-0.45590052008628845,-0.34369149804115295,0.7929174304008484,-0.6376944780349731,-0.701439619064331,-0.7205650806427002,0.7203678488731384,-0.23356369137763977,-0.21010495722293854,-0.1085403710603714,0.6719284653663635,-0.6454514861106873,-0.7388765215873718,-0.6384570598602295,0.7426514029502869,-1.0080981254577637,-0.8178530335426331,-0.7079795598983765,0.5445718169212341,-0.6351087093353271,-0.3129161298274994,-0.6255410313606262,0.7616530060768127,-0.3167867362499237,-0.6623527407646179,-0.3529306948184967,0.45294275879859924,-0.5040494799613953,-0.25709691643714905,-0.37883132696151733,0.6527368426322937,-0.6344615817070007,-0.6263885498046875,-0.7484451532363892,0.5575879216194153,-0.41336601972579956,-0.30436763167381287,-0.46160659193992615,0.6556102633476257,-0.6810833215713501,-0.6298627257347107,-0.9333670139312744,0.6970904469490051,-0.9309843182563782,-0.941867470741272,-0.5548579096794128,0.7799732089042664,-0.22201764583587646,0.07883287966251373,0.0461241789162159,0.5181161165237427,-0.4200749099254608,-0.15579965710639954,-0.13688474893569946,0.7751004099845886,-0.4915845990180969,-0.5083678960800171,-0.4522643983364105,0.4234384000301361,-0.5828853845596313,-0.37163007259368896,-0.23385947942733765,0.5213348269462585],[-1.003441572189331,-0.9093669056892395,-0.8474641442298889,0.3859919607639313,-0.8651406764984131,-0.7445648908615112,-0.780299186706543,0.21853046119213104,-0.8698452115058899,-0.6826122403144836,-0.8499053716659546,0.6065986752510071,-0.5606040954589844,-0.6597335338592529,-0.640887439250946,0.5227558016777039,-0.539965033531189,-0.8307206630706787,-0.4951860308647156,0.23000063002109528,-0.46747544407844543,-0.5489791035652161,-0.6791452765464783,0.2880147397518158,-0.9022170305252075,-0.6990684866905212,-0.7948788404464722,0.4453794062137604,-0.7235490083694458,-0.7112073302268982,-0.9260609149932861,0.2994946539402008,-0.4462917447090149,-0.34457388520240784,-0.5054782629013062,0.47382858395576477,-0.47838467359542847,-0.5023527145385742,-0.45038750767707825,0.4964946210384369,-0.6930325031280518,-0.47842517495155334,-0.4726512134075165,0.24259285628795624,-0.7402955293655396,-0.4890469014644623,-0.5298766493797302,0.3859849274158478,-0.49993351101875305,-0.5756055116653442,-0.3122168779373169,0.5034587383270264,-0.6567972898483276,-0.3973425626754761,-0.4547601640224457,0.34971579909324646,-0.7129480242729187,-0.6454941034317017,-0.7766515016555786,0.5963783860206604,-0.4143446981906891,-0.40105366706848145,-0.2979442775249481,0.2923585772514343,-0.6093011498451233,-0.7196356058120728,-0.7535752058029175,0.4915598928928375,-0.8356679677963257,-0.6052584052085876,-0.7934212684631348,0.2437044233083725,-0.46113938093185425,-0.5153929591178894,-0.4580916464328766,0.45370200276374817,-0.33628174662590027,-0.39831745624542236,-0.23683872818946838,0.515136182308197,-0.3985988199710846,-0.32071733474731445,-0.45052585005760193,0.337834894657135,-0.5229291319847107,-0.49312084913253784,-0.7734280824661255,0.2641153335571289,-0.32214048504829407,-0.45978039503097534,-0.5394780039787292,0.4202190339565277,-0.8859840631484985,-0.6813585162162781,-0.7825708389282227,0.28492024540901184,-0.8283457159996033,-0.9534934163093567,-1.125113844871521,0.25548550486564636,-0.6236239671707153,-0.5140135884284973,-0.40721186995506287,0.45991250872612,-0.4550955891609192,-0.5410400629043579,-0.30182573199272156,0.4141174256801605,-0.43716827034950256,-0.6965436935424805,-0.682440459728241,0.5701478719711304,-0.7790442109107971,-0.7355548143386841,-0.6265752911567688,0.2159797102212906,-0.4225980043411255,-0.2876260280609131,-0.29056790471076965,0.256658136844635,-0.9490464329719543,-0.8969253301620483,-0.7447556257247925,0.5162655115127563,-0.9050334692001343,-0.8091092705726624,-0.8385560512542725,0.28726887702941895,-0.7340641021728516,-0.7213703393936157,-0.6417099833488464,0.5859670042991638,-0.45779773592948914,-0.38975989818573,-0.6861861348152161,0.5661022067070007,-0.6195424199104309,-0.6502713561058044,-0.6699445843696594,0.34161457419395447,-0.5930033922195435,-0.30492570996284485,-0.6911981105804443,0.5787357091903687,-0.3489669859409332,-0.3863343596458435,-0.28785839676856995,0.40187910199165344,-0.622793436050415,-0.7396186590194702,-0.6942439675331116,0.3814980089664459,-0.8268218040466309,-0.6260230541229248,-0.560244619846344,0.4233926832675934,-0.739267110824585,-0.5726764798164368,-0.6150440573692322,0.3688448965549469,-0.6953139305114746,-0.692782998085022,-0.5731126666069031,0.49729183316230774,-1.003993272781372,-0.8518481254577637,-0.9928700923919678,0.4232500493526459,-0.6160858273506165,-0.41807323694229126,-0.6182525753974915,0.2283964306116104,-0.32078513503074646,-0.26297226548194885,-0.29583853483200073,0.4077397882938385,-0.5611382126808167,-0.4305354356765747,-0.6652205586433411,0.5342205166816711,-0.8249316811561584,-0.7293285131454468,-0.7963471412658691,0.5801639556884766,-0.38406306505203247,-0.5136991143226624,-0.503940224647522,0.2440720647573471,-0.73868727684021,-0.9564245343208313,-0.672896146774292,0.4984748065471649,-1.1383342742919922,-0.8178986310958862,-1.1171520948410034,0.30309000611305237],[-0.04276422783732414,-0.21808172762393951,0.12045620381832123,-0.3812062740325928,-0.20444126427173615,0.07543052732944489,-0.0338585264980793,-0.2602303922176361,-0.012495028786361217,0.040840309113264084,-0.16525673866271973,-0.2127009630203247,0.19567595422267914,0.20028753578662872,0.049589019268751144,-0.33112311363220215,0.1171438992023468,-0.003249987494200468,-0.10240428149700165,-0.2698937952518463,0.06238691881299019,-0.007625318598002195,0.10590396821498871,-0.28515130281448364,0.12451513856649399,0.1535111665725708,-0.050736989825963974,-0.3639184236526489,-0.06604550033807755,-0.20866306126117706,-0.13452430069446564,-0.40617257356643677,-0.009764919988811016,-0.16654638946056366,-0.01695958524942398,-0.19294218719005585,0.07291024923324585,0.14697113633155823,0.10077394545078278,-0.3188689351081848,-0.07735715061426163,0.1682351976633072,0.21646377444267273,-0.3805440068244934,0.07323088496923447,-0.06006241217255592,-0.01023662369698286,-0.3832451105117798,0.00032727656071074307,-0.02704445645213127,0.15775923430919647,-0.09800513833761215,0.09420856088399887,-0.168426975607872,-0.17927958071231842,-0.15991999208927155,-0.12209868431091309,-0.19556337594985962,0.06109543517231941,-0.3579941987991333,-0.03939392790198326,-0.021518807858228683,-0.13365113735198975,-0.39618808031082153,-0.07051791995763779,-0.08755356073379517,0.0883595421910286,-0.1957734227180481,-0.0197248887270689,-0.16881145536899567,0.0005088391480967402,-0.1880575269460678,0.05918445810675621,-0.08198054134845734,0.08148651570081711,-0.24699416756629944,0.016599873080849648,0.18616172671318054,0.0944313034415245,-0.2552327513694763,0.038861412554979324,0.12689109146595,-0.0026663311291486025,-0.10457643121480942,-0.16496604681015015,-0.024893375113606453,-0.04536404460668564,-0.18567225337028503,0.1758899688720703,0.1175343245267868,0.06656746566295624,-0.38849937915802,0.19442762434482574,-0.11028307676315308,-0.15535295009613037,-0.1889505535364151,0.0739920437335968,0.002579579595476389,0.12746484577655792,-0.1770934760570526,0.06743653118610382,0.028056781738996506,-0.03277220204472542,-0.2389049530029297,0.20863109827041626,-0.09538371115922928,0.03504343703389168,-0.2004411816596985,0.19155755639076233,-0.14748769998550415,0.07052859663963318,-0.3998485803604126,-0.19676649570465088,-0.035151463001966476,-0.10765492171049118,-0.12410994619131088,0.18364977836608887,0.10781998932361603,0.2003370076417923,-0.2801553010940552,0.0659671276807785,0.011527391150593758,-0.10245412588119507,-0.2216242551803589,-0.06130930408835411,0.1614694893360138,0.1248721182346344,-0.08597694337368011,0.10681140422821045,-0.08420976996421814,-0.023257866501808167,-0.16364294290542603,0.16655397415161133,0.0862908884882927,0.043924909085035324,-0.24926131963729858,-0.09983691573143005,0.11045844852924347,0.12168758362531662,-0.0864858329296112,-0.08368267118930817,-0.03772808983922005,0.1660650372505188,-0.11092390865087509,-0.17679686844348907,-0.1576380431652069,-0.1192147359251976,-0.0358964167535305,0.1634405255317688,0.007215214893221855,0.13736948370933533,-0.2073211371898651,-0.0668032169342041,-0.14025703072547913,0.08098704367876053,-0.14744871854782104,0.1707209199666977,0.15075935423374176,-0.014992141164839268,-0.1706351488828659,0.1872553527355194,-0.10979028791189194,-0.0008135069510899484,-0.13021843135356903,0.1648261547088623,0.19300390779972076,0.1436024010181427,-0.17492221295833588,-0.12180842459201813,-0.09649744629859924,-0.0739404484629631,-0.13656312227249146,0.024289818480610847,-0.01944107376039028,-0.12635010480880737,-0.30051034688949585,0.12394748628139496,0.06674417108297348,0.16572362184524536,-0.3211132884025574,0.06769099831581116,0.07259908318519592,-0.16998757421970367,-0.12314539402723312,0.10565417259931564,-0.022630084306001663,0.14687484502792358,-0.17156893014907837,0.15886549651622772,0.05659656599164009,0.1794145554304123,-0.3052581548690796,0.1036185547709465,0.07585878670215607,0.05916149914264679,-0.1086321696639061],[-0.13810208439826965,-0.18390414118766785,0.05881214886903763,-0.10623311251401901,0.13311126828193665,0.14241231977939606,0.06827717274427414,-0.240391805768013,0.003073041792958975,-0.03014005906879902,-0.14157477021217346,-0.09894738346338272,0.031325846910476685,-0.12532953917980194,0.10308043658733368,-0.10950960963964462,-0.13549353182315826,-0.07482646405696869,-0.11472228914499283,-0.4120466411113739,-0.10443755239248276,-0.12591345608234406,0.1752937138080597,-0.3836844265460968,0.07110566645860672,-0.1383439153432846,0.2184125930070877,-0.2888399064540863,0.08322979509830475,-0.21070504188537598,-0.1235913410782814,-0.41481277346611023,0.050587043166160583,-0.1931859403848648,0.03750501200556755,-0.35478320717811584,0.12564215064048767,0.12683282792568207,-0.07945594936609268,-0.20064137876033783,0.18645457923412323,-0.00039297493640333414,0.20427162945270538,-0.45106443762779236,0.23006592690944672,0.11591596901416779,0.10475795716047287,-0.4093816578388214,0.004248771350830793,0.20686650276184082,0.21075142920017242,-0.18621255457401276,0.13055437803268433,-0.13328130543231964,-0.05368532985448837,-0.3527736961841583,-0.12335115671157837,0.07966712862253189,-0.12602569162845612,-0.29379549622535706,-0.1860358566045761,-0.1821441948413849,-0.1380889117717743,-0.40288177132606506,-0.11097154766321182,0.1813846081495285,0.15315647423267365,-0.10030875355005264,0.11874755471944809,-0.023111220449209213,0.12398113310337067,-0.35839763283729553,0.19813843071460724,-0.033238086849451065,-0.12478625029325485,-0.40788087248802185,0.17666466534137726,0.04564790427684784,0.01575784757733345,-0.2626567482948303,0.12354297190904617,0.12928488850593567,0.13467198610305786,-0.43749430775642395,0.09058324247598648,0.04957713186740875,-0.01260430458933115,-0.34341397881507874,0.18223881721496582,0.030575141310691833,-0.033795032650232315,-0.2683165669441223,0.08038093894720078,0.0012264264514669776,-0.01637868769466877,-0.07587354630231857,-0.15160007774829865,0.1561458557844162,-0.0951244905591011,-0.07573465257883072,0.0895761251449585,0.2069748491048813,0.17402170598506927,-0.18196436762809753,0.012996169738471508,-0.07861676067113876,0.050212305039167404,-0.42894938588142395,0.12464521825313568,0.14467912912368774,-0.13160589337348938,-0.3613593876361847,0.09646713733673096,-0.05459700897336006,0.09526963531970978,-0.27249225974082947,0.08075905591249466,0.03726745396852493,0.19496525824069977,-0.24122129380702972,0.011302202939987183,0.07091251760721207,0.1739606410264969,-0.30675560235977173,0.21693383157253265,-0.07290273159742355,0.16711391508579254,-0.38210585713386536,-0.013290931470692158,-0.16257083415985107,-0.1634415090084076,-0.2195056825876236,-0.10616538673639297,0.19861167669296265,0.08075585961341858,-0.29286912083625793,-0.10548169165849686,0.030292758718132973,-0.1669653207063675,-0.06678456813097,0.18996340036392212,0.10842563956975937,0.011134200729429722,-0.18338291347026825,0.07539864629507065,-0.06659717857837677,0.042007945477962494,-0.17889514565467834,0.22208215296268463,-0.0038932273164391518,-0.05953749641776085,-0.10853338986635208,0.20327214896678925,-0.0026756874285638332,-0.12971128523349762,-0.23305930197238922,0.12200002372264862,0.009779563173651695,0.04407184571027756,-0.45425936579704285,0.0401652492582798,0.027161037549376488,-0.09498781710863113,-0.19390472769737244,-0.09035301208496094,0.0011653878027573228,0.16662243008613586,-0.28825414180755615,0.06844710558652878,-0.11089006811380386,-0.04589563235640526,-0.3412938416004181,-0.057515949010849,0.19642898440361023,0.18517568707466125,-0.16178368031978607,0.06348318606615067,-0.09085243940353394,0.19803352653980255,-0.17462368309497833,-0.14610083401203156,0.041041187942028046,-0.09194335341453552,-0.2733107805252075,0.18257896602153778,0.16924747824668884,-0.1414649337530136,-0.3481159508228302,0.10840661823749542,0.06745254993438721,0.19222742319107056,-0.12440463155508041,-0.049454376101493835,0.03795061260461807,-0.040136609226465225,-0.09713099151849747],[0.8617406487464905,1.1512304544448853,0.9585357308387756,-3.418632984161377,2.581766366958618,2.450610876083374,2.527097463607788,-3.7070093154907227,2.075396776199341,2.293184280395508,2.2833471298217773,-3.6751623153686523,1.5133333206176758,1.264281988143921,1.3761534690856934,-3.438197612762451,0.9268050193786621,1.1065630912780762,1.076733112335205,-3.655557155609131,1.7467859983444214,1.9415355920791626,1.9277368783950806,-3.534942626953125,1.5714070796966553,1.3235838413238525,1.657395601272583,-3.52108097076416,1.1564092636108398,1.1634526252746582,1.373365879058838,-3.379249095916748,2.209202527999878,2.2729332447052,2.134504556655884,-3.5080418586730957,1.7946510314941406,1.9759550094604492,1.8725380897521973,-3.408355712890625,1.757612705230713,1.871636152267456,1.6506845951080322,-3.3599905967712402,1.0661137104034424,0.8079529404640198,0.9080386757850647,-3.616222858428955,1.7036914825439453,1.5773746967315674,1.6272251605987549,-3.482274055480957,1.5543677806854248,1.4288794994354248,1.361136555671692,-3.7250823974609375,1.4505993127822876,1.2465002536773682,1.4451946020126343,-3.578345775604248,1.8109666109085083,1.7879153490066528,1.6864992380142212,-3.6113839149475098,1.7894586324691772,1.670574426651001,1.6644095182418823,-3.71165132522583,1.391152262687683,1.7260491847991943,1.56235933303833,-3.625443458557129,0.6657341718673706,0.8757667541503906,0.7931369543075562,-3.558222770690918,1.7798423767089844,1.8714048862457275,1.9333982467651367,-3.700188636779785,1.5028693675994873,1.490276575088501,1.5727362632751465,-3.6721181869506836,1.6651513576507568,1.7451508045196533,1.549371600151062,-3.5705819129943848,2.2375106811523438,2.2646048069000244,2.054642677307129,-3.737067699432373,1.9018473625183105,2.1269028186798096,1.9906344413757324,-3.630112648010254,2.01171612739563,2.0687408447265625,1.905287742614746,-3.438528060913086,1.1332491636276245,1.079278826713562,1.0203310251235962,-3.728854179382324,1.7602859735488892,1.7720412015914917,1.7438950538635254,-3.548816204071045,1.4368871450424194,1.4170128107070923,1.2995096445083618,-3.5302586555480957,1.3519842624664307,1.5787378549575806,1.4945722818374634,-3.579763889312744,1.8451533317565918,1.9291253089904785,1.9070723056793213,-3.5059146881103516,1.9702565670013428,1.9550654888153076,1.9406087398529053,-3.491786479949951,2.0262041091918945,2.1380391120910645,1.9081430435180664,-3.5205421447753906,1.3631170988082886,1.2533119916915894,1.3589881658554077,-3.5522584915161133,1.8295437097549438,1.6306473016738892,1.6557923555374146,-3.5134639739990234,1.3794845342636108,1.0481621026992798,1.0245674848556519,-3.3687744140625,1.0219659805297852,1.0539932250976562,0.9118426442146301,-3.5262908935546875,1.498451828956604,1.3424073457717896,1.582729458808899,-3.5516066551208496,1.4589351415634155,1.4505425691604614,1.2522021532058716,-3.6478071212768555,2.0633413791656494,1.9046134948730469,2.0838534832000732,-3.64133358001709,1.3431239128112793,1.288771390914917,1.5015199184417725,-3.603900909423828,1.5213531255722046,1.5025080442428589,1.6547268629074097,-3.7032103538513184,0.714702844619751,0.954378604888916,0.8846760988235474,-3.707942008972168,1.2237403392791748,1.0256330966949463,1.1850855350494385,-3.704167366027832,1.1980961561203003,1.398300051689148,1.4463192224502563,-3.435011863708496,1.3252931833267212,1.4345875978469849,1.1175771951675415,-3.666543483734131,1.2679811716079712,1.0485607385635376,1.0972179174423218,-3.5504798889160156,0.8998359441757202,0.7372416257858276,0.9368791580200195,-3.6917619705200195,0.925926685333252,1.2266209125518799,1.1407124996185303,-3.6003336906433105,0.7993758916854858,0.9375177621841431,0.8784695863723755,-3.6417198181152344],[-1.625495195388794,-1.7281781435012817,-1.5017701387405396,0.4818773865699768,-1.322928547859192,-1.4334896802902222,-1.5633617639541626,0.6071652173995972,-1.064954400062561,-1.2386720180511475,-0.9532489776611328,0.6592625379562378,-1.1477673053741455,-1.1537270545959473,-1.0532219409942627,0.7542825937271118,-1.0313851833343506,-0.9103956818580627,-1.0604448318481445,0.5050535202026367,-1.1142981052398682,-0.9265405535697937,-1.2777701616287231,0.7954643964767456,-1.3553386926651,-1.3383466005325317,-1.4415719509124756,0.5978999137878418,-1.101810097694397,-1.2165104150772095,-1.2900272607803345,0.6507929563522339,-0.9541791677474976,-0.7802499532699585,-0.9520032405853271,0.6530578136444092,-0.839881181716919,-0.992337703704834,-0.7663248777389526,0.6662818193435669,-0.8717162013053894,-1.046220302581787,-1.0593974590301514,0.6885745525360107,-1.0295344591140747,-0.9405317902565002,-0.8821107149124146,0.5759792327880859,-0.8112186789512634,-0.6863311529159546,-0.8536894917488098,0.7410500049591064,-1.0039805173873901,-0.9838456511497498,-1.0005961656570435,0.7125729322433472,-1.1734981536865234,-0.9920467734336853,-1.2405701875686646,0.6686513423919678,-0.35161304473876953,-0.36298197507858276,-0.4861410856246948,0.4289403557777405,-1.448709487915039,-1.4566056728363037,-1.205822467803955,0.7068592309951782,-1.293829321861267,-1.2099171876907349,-1.3083628416061401,0.7466864585876465,-0.8826348781585693,-0.924862802028656,-0.8958784937858582,0.42556196451187134,-0.5497975945472717,-0.7019081115722656,-0.35163894295692444,0.5793569087982178,-0.6527120471000671,-0.803083062171936,-0.733223557472229,0.6926252841949463,-1.3834524154663086,-1.327348232269287,-1.0923500061035156,0.601067304611206,-0.4179140031337738,-0.4320325553417206,-0.5529091954231262,0.7831631898880005,-1.3727455139160156,-1.6089975833892822,-1.3025152683258057,0.5987073183059692,-1.8791260719299316,-1.9494686126708984,-1.8988542556762695,0.5850293636322021,-0.9675660729408264,-0.9149748682975769,-0.8687963485717773,0.5159178972244263,-0.5147393941879272,-0.4773016571998596,-0.2741728723049164,0.6560037136077881,-0.759737491607666,-0.5830090641975403,-0.8483020067214966,0.6110081672668457,-1.0906686782836914,-1.029944896697998,-1.001225471496582,0.7915542125701904,-0.4169969856739044,-0.30103859305381775,-0.4945979416370392,0.5420752763748169,-1.5144498348236084,-1.1898603439331055,-1.4818806648254395,0.5924378633499146,-1.5306735038757324,-1.4952256679534912,-1.3094743490219116,0.4756692051887512,-1.1674593687057495,-1.1290156841278076,-0.9121502637863159,0.7043544054031372,-0.662541389465332,-0.4355205297470093,-0.5065188407897949,0.5389373302459717,-0.7690476775169373,-0.9290797114372253,-0.917732834815979,0.8166813850402832,-0.6302619576454163,-0.9712064862251282,-0.7198976278305054,0.5022553205490112,-0.39139804244041443,-0.1551874577999115,-0.38430333137512207,0.5315688848495483,-1.2306336164474487,-1.2416478395462036,-1.1969027519226074,0.4829537868499756,-1.1713160276412964,-1.3437503576278687,-1.279433250427246,0.49212872982025146,-0.9638643860816956,-0.9505497217178345,-1.192431092262268,0.4652048349380493,-0.7261691093444824,-0.9522641897201538,-0.7220342755317688,0.7341715097427368,-1.024275541305542,-1.1078236103057861,-1.2050927877426147,0.49594318866729736,-0.8896338939666748,-0.712053656578064,-0.8391603827476501,0.628383994102478,0.07109823077917099,-0.16235099732875824,-0.027512412518262863,0.7886648178100586,-0.9152383208274841,-1.1040805578231812,-1.2518987655639648,0.45222920179367065,-0.9862238764762878,-1.1181976795196533,-1.2620923519134521,0.7088589668273926,-0.4485848546028137,-0.5078070163726807,-0.758715808391571,0.8027002811431885,-1.374762773513794,-1.398773431777954,-1.066572904586792,0.5175321102142334,-1.1857154369354248,-1.4576215744018555,-1.3512221574783325,0.7432714700698853],[-1.683685302734375,-1.5243868827819824,-1.39860200881958,2.496572732925415,-2.0918805599212646,-2.046720266342163,-2.222465991973877,2.5110280513763428,0.3662535548210144,0.5336284637451172,0.5288945436477661,2.7180964946746826,-0.5036290287971497,-0.2225879579782486,-0.4241634011268616,2.876492738723755,-2.4111328125,-2.7254059314727783,-2.3522815704345703,2.814702272415161,-2.158562660217285,-2.0442984104156494,-2.2399208545684814,2.7676613330841064,-2.438119649887085,-2.570462942123413,-2.5802254676818848,2.564359426498413,-1.1283708810806274,-0.8481867909431458,-1.1374707221984863,2.755200147628784,-1.9557995796203613,-1.8683781623840332,-1.9083194732666016,2.668198347091675,-1.1317058801651,-1.3317525386810303,-1.0832821130752563,2.8606460094451904,-0.8826971054077148,-0.8775509595870972,-0.5952402353286743,2.658221483230591,-2.04390549659729,-2.417020082473755,-2.103067398071289,2.8876988887786865,-2.000866174697876,-2.0199742317199707,-1.869010329246521,2.653010606765747,-1.6494263410568237,-1.7841633558273315,-1.765159010887146,2.745465040206909,-1.3920869827270508,-1.2537932395935059,-1.3528602123260498,2.6646883487701416,-1.1723543405532837,-1.0280473232269287,-0.9985479712486267,2.848012685775757,-1.7300503253936768,-1.653503656387329,-1.8194620609283447,2.891075372695923,-1.5175857543945312,-1.5929770469665527,-1.4313585758209229,2.7444746494293213,-2.2017877101898193,-2.450098991394043,-2.1203386783599854,2.6431753635406494,-1.2818118333816528,-0.9144758582115173,-1.023023009300232,2.761240243911743,-0.5746206641197205,-0.619812548160553,-0.5107529759407043,2.859424352645874,-2.239785671234131,-2.34932804107666,-2.338622570037842,2.8579423427581787,-0.2977142632007599,-0.37693509459495544,-0.4207299053668976,2.51747727394104,-2.606471300125122,-2.509363889694214,-2.6737351417541504,2.7549312114715576,-2.1807873249053955,-2.32635235786438,-2.181617021560669,2.7470104694366455,-1.619698166847229,-1.9791656732559204,-1.9761217832565308,2.676701784133911,-1.8716180324554443,-1.856848955154419,-1.5140461921691895,2.699747323989868,-0.1869492530822754,-0.14432848989963531,-0.011507497169077396,2.7773797512054443,-2.207339286804199,-2.0474777221679688,-2.1385035514831543,2.745711088180542,-0.68500816822052,-0.915359616279602,-0.8922206163406372,2.497246026992798,-2.671785354614258,-2.4675097465515137,-2.417067527770996,2.5260374546051025,-1.8314142227172852,-1.8215069770812988,-2.209077835083008,2.6414859294891357,-1.248608112335205,-1.4198086261749268,-1.1773511171340942,2.876749277114868,-2.55309796333313,-2.431307554244995,-2.326479911804199,2.677983522415161,-1.06173837184906,-0.9022859334945679,-0.7541050910949707,2.8345906734466553,-1.3335440158843994,-1.4997360706329346,-1.5462005138397217,2.7973363399505615,-2.1288352012634277,-2.168306589126587,-1.869132399559021,2.7524588108062744,-2.4515604972839355,-2.62587833404541,-2.511636734008789,2.6872427463531494,-1.543479561805725,-1.1971408128738403,-1.3241204023361206,2.6417863368988037,-0.881858229637146,-1.0170832872390747,-0.9972978830337524,2.8647210597991943,-2.5231542587280273,-2.3629910945892334,-2.650428533554077,2.7815616130828857,-1.0069735050201416,-1.1419121026992798,-0.9942415952682495,2.6748836040496826,-1.1888196468353271,-1.2710932493209839,-1.4180259704589844,2.6912195682525635,-1.3186798095703125,-1.5189123153686523,-1.4156322479248047,2.8496291637420654,-1.3636126518249512,-1.385326623916626,-1.450864315032959,2.5976855754852295,-0.44201719760894775,-0.5884197354316711,-0.6439335942268372,2.723184823989868,-1.0122647285461426,-1.018662452697754,-1.2079817056655884,2.515350103378296,-3.1517274379730225,-3.21220064163208,-2.94423770904541,2.821636438369751,-1.0572712421417236,-1.0074266195297241,-0.9003176689147949,2.8720619678497314],[-2.274677276611328,-2.229170560836792,-2.0099053382873535,2.222782611846924,-2.8662643432617188,-2.7399988174438477,-2.5756514072418213,2.310582160949707,-3.263080358505249,-3.08461856842041,-3.228253126144409,2.3100123405456543,-1.3446468114852905,-1.4088293313980103,-1.6191998720169067,2.1336355209350586,-1.059931755065918,-0.944558322429657,-1.008841872215271,2.0312533378601074,-2.9418375492095947,-3.138784170150757,-3.167161703109741,2.355109214782715,-1.4558634757995605,-1.3304871320724487,-1.532639503479004,2.32639741897583,-1.2323458194732666,-1.186415672302246,-1.383614182472229,2.2702627182006836,-2.004136800765991,-2.0779359340667725,-2.210624933242798,2.096846580505371,-1.9619183540344238,-1.7797274589538574,-1.6848187446594238,2.0368804931640625,-1.2792088985443115,-1.2789361476898193,-0.9975190162658691,2.3782081604003906,-0.7652250528335571,-0.7394194602966309,-0.5435038208961487,2.374457836151123,-1.9089486598968506,-1.8901090621948242,-1.8316985368728638,2.3795132637023926,-1.5214488506317139,-1.4292070865631104,-1.5169391632080078,2.1389269828796387,-1.6016069650650024,-1.3880828619003296,-1.458715796470642,2.3025994300842285,-1.400549292564392,-1.5723568201065063,-1.4987460374832153,2.1277341842651367,-2.094299077987671,-2.129274368286133,-2.1042373180389404,2.187375545501709,-2.0372891426086426,-1.9641598463058472,-1.7587999105453491,2.161421298980713,-0.754388689994812,-0.45026445388793945,-0.46448981761932373,2.3558292388916016,-1.7347240447998047,-2.068406105041504,-1.7302219867706299,2.275843620300293,-2.8981151580810547,-3.186530113220215,-3.256415367126465,2.1119656562805176,-1.4522371292114258,-1.5662610530853271,-1.702301025390625,2.2428479194641113,-1.7558497190475464,-1.697494387626648,-1.6638213396072388,2.044642925262451,-2.679877281188965,-2.651087522506714,-2.8140125274658203,2.3645124435424805,-1.702633023262024,-1.849713683128357,-1.9295955896377563,2.2778549194335938,-0.9897426962852478,-0.8254233002662659,-0.6823152899742126,2.1534743309020996,-2.892460584640503,-2.697007894515991,-2.679668426513672,2.2798242568969727,-3.2620184421539307,-3.4779622554779053,-3.499457597732544,2.105222225189209,-1.660710334777832,-1.6491434574127197,-2.0161423683166504,2.0345945358276367,-1.7633200883865356,-1.6080580949783325,-1.7257112264633179,2.0832719802856445,-2.0520496368408203,-2.106168508529663,-1.8397191762924194,2.25186824798584,-1.3035345077514648,-1.3066389560699463,-1.4836702346801758,2.3448166847229004,-2.0778648853302,-2.3147125244140625,-2.0719313621520996,2.0739941596984863,-2.8511850833892822,-2.7582309246063232,-2.6023919582366943,2.1089510917663574,-1.5869697332382202,-1.4357866048812866,-1.3871358633041382,2.1009931564331055,-3.733372926712036,-3.743788003921509,-3.4592106342315674,2.225743293762207,-1.104842185974121,-0.9350510835647583,-0.9731408953666687,2.236941337585449,-0.5356249809265137,-0.5649908781051636,-0.5125293731689453,2.2215523719787598,-2.120565891265869,-2.2612390518188477,-2.1249020099639893,2.181306838989258,-2.466418743133545,-2.305457353591919,-2.3605737686157227,2.2703609466552734,-1.8994309902191162,-2.145667314529419,-2.2003021240234375,2.213522434234619,-0.9727288484573364,-0.9673037528991699,-0.5974094271659851,2.3880462646484375,-3.7340025901794434,-3.538788318634033,-3.6000661849975586,2.19649600982666,-0.8006822466850281,-0.809109628200531,-1.07998526096344,2.1204562187194824,-0.36620402336120605,-0.31824642419815063,-0.2814832925796509,2.0368118286132812,-3.7539048194885254,-3.5994997024536133,-3.7340149879455566,2.056321620941162,-2.632146120071411,-2.8518412113189697,-2.5934765338897705,2.307603359222412,-1.2356162071228027,-1.4229109287261963,-1.5707963705062866,2.1499414443969727,-0.2929750382900238,-0.07800516486167908,-0.05676274746656418,2.1180410385131836],[0.19051238894462585,0.12957635521888733,0.03488709405064583,-0.7616835832595825,-0.006685482803732157,0.31268832087516785,0.09436357766389847,-0.6997398138046265,0.06957150250673294,-0.01074127946048975,-0.015756316483020782,-0.680253267288208,0.2687467336654663,-0.001368868281133473,0.041192345321178436,-0.6132742166519165,0.12782154977321625,-0.0009331474429927766,0.14003527164459229,-0.40771013498306274,0.29410168528556824,0.08323436230421066,0.17525218427181244,-0.632827877998352,0.2876628339290619,0.19042734801769257,0.31700584292411804,-0.5232874751091003,0.282476007938385,0.24448202550411224,0.06851906329393387,-0.6321009993553162,0.28027161955833435,0.24825073778629303,-0.05745059251785278,-0.6775968074798584,0.14660458266735077,0.099271260201931,0.29289066791534424,-0.45050686597824097,0.035253286361694336,0.07558365166187286,0.19813714921474457,-0.6193516850471497,0.32585713267326355,0.1416110098361969,0.1733560413122177,-0.6683850288391113,0.08462296426296234,-0.007646855898201466,-0.021168777719140053,-0.4437669515609741,0.27696382999420166,-0.029294611886143684,0.1351245641708374,-0.4100239872932434,0.19941647350788116,0.26887866854667664,0.22891831398010254,-0.5439980626106262,0.3259415328502655,-0.04160644859075546,0.24733643233776093,-0.7411360740661621,0.1883084923028946,0.2537188231945038,0.09868878871202469,-0.7350594997406006,0.06003665551543236,0.05580887570977211,0.2890142500400543,-0.4879941940307617,0.30644455552101135,0.04236527904868126,0.23698285222053528,-0.6056975722312927,0.010239271447062492,0.26319968700408936,0.3153805136680603,-0.7338069677352905,0.19171884655952454,0.06365769356489182,0.04107735678553581,-0.7657780647277832,0.09673960506916046,0.31709474325180054,0.1907496452331543,-0.5170785188674927,0.27157357335090637,0.2916965186595917,0.12414155155420303,-0.7174005508422852,0.02307463437318802,0.09026207774877548,0.33454111218452454,-0.4387366771697998,0.3715355396270752,0.19359354674816132,0.2270076870918274,-0.7663955688476562,0.048019371926784515,0.12340313196182251,0.10842623561620712,-0.6813997030258179,0.193811297416687,0.33656975626945496,0.019497783854603767,-0.6698980927467346,0.11635217815637589,0.3530208468437195,0.13106146454811096,-0.6005923748016357,0.10778535157442093,0.14114557206630707,0.05781552940607071,-0.6017791628837585,0.3369978070259094,0.20725023746490479,0.015404673293232918,-0.5878587365150452,0.17068377137184143,0.03618664667010307,0.0984749123454094,-0.427431583404541,0.05996817722916603,0.2866258919239044,0.10184671729803085,-0.5281442999839783,0.11011936515569687,0.04785168915987015,0.026315836235880852,-0.6993732452392578,0.3243749737739563,0.1984589546918869,0.19887574017047882,-0.7767984867095947,0.021595237776637077,0.07257597148418427,0.18973061442375183,-0.5272877812385559,0.2056649774312973,0.0711698904633522,0.2992216646671295,-0.7881802320480347,0.07184915244579315,0.3099329471588135,0.12421367317438126,-0.6298368573188782,0.04181569069623947,0.2728325426578522,0.03818477690219879,-0.4723234176635742,0.21881558001041412,0.20642238855361938,0.22695982456207275,-0.6268779039382935,0.2541276812553406,0.36306363344192505,0.2846388518810272,-0.3920011520385742,0.35117268562316895,0.021901175379753113,0.1988770067691803,-0.6694949865341187,-0.021958759054541588,0.2905200719833374,0.1629445105791092,-0.7468972206115723,0.17920613288879395,-0.0026572945062071085,0.25624996423721313,-0.75896155834198,0.29993534088134766,0.22648228704929352,-0.015656791627407074,-0.7290703058242798,0.16947613656520844,0.38278621435165405,0.2166042923927307,-0.7820700407028198,0.13965679705142975,0.13718195259571075,0.0374014750123024,-0.4605128765106201,0.2094656229019165,0.2084091454744339,0.0931868627667427,-0.42138761281967163,0.29920390248298645,0.36158984899520874,0.2939152717590332,-0.42116761207580566,-0.0013496583560481668,0.062218066304922104,0.22635838389396667,-0.39506518840789795]],"biases":[0.17637348175048828,0.7081105709075928,0.2833852767944336,-0.2935744822025299,-0.13893775641918182,-3.365997552871704,0.4128360152244568,2.4526658058166504,1.993687391281128,-0.4492092728614807]},{"weights":[[0.6294034719467163,-1.3273544311523438,2.5392847061157227,-0.1631086766719818,-0.44389671087265015,1.0271165370941162,4.702754020690918,-2.9195773601531982,1.7444474697113037,-0.6696669459342957],[-0.5340657234191895,-0.7006890773773193,-0.06471492350101471,0.3017489016056061,0.21709777414798737,1.2490483522415161,-0.26055923104286194,-0.5695775151252747,1.0053274631500244,0.23306554555892944],[0.15754073858261108,-0.4373045265674591,0.10818754136562347,0.08933671563863754,-0.21016724407672882,-0.2923702001571655,0.07425077259540558,-0.8324366211891174,-0.1927189975976944,-0.12419772893190384],[0.7347608804702759,-0.8651553392410278,1.4906830787658691,-0.25144335627555847,-0.3781891465187073,0.25591203570365906,3.0011696815490723,-2.480753183364868,1.967913031578064,-0.547448992729187],[0.23451143503189087,-0.23307844996452332,0.9121652841567993,-0.07650499790906906,-0.1455128788948059,-0.6710585355758667,0.7631832957267761,-0.24649038910865784,1.3902153968811035,-0.20189008116722107],[0.025951191782951355,-0.633359968662262,0.15933410823345184,-0.2845974564552307,0.04303331300616264,-0.41995784640312195,0.1476915031671524,-0.7003147602081299,-0.0891050472855568,-0.23773062229156494],[-0.46792396903038025,4.00209379196167,0.6689568758010864,0.28841522336006165,0.22843588888645172,1.483907699584961,-0.17325331270694733,-9.537628173828125,2.099874496459961,1.1564539670944214],[0.6495806574821472,-0.18349771201610565,1.5128812789916992,-0.28947168588638306,-0.19814692437648773,0.9304333329200745,2.599334239959717,-2.790597915649414,7.47308349609375,-0.47457244992256165],[-0.5675968527793884,-2.334428310394287,-0.48365774750709534,0.17071641981601715,0.3007977604866028,9.28054141998291,-0.7428233027458191,-0.4572647511959076,0.5029367804527283,1.062148094177246],[0.474176287651062,-0.844970703125,1.2496426105499268,-0.22392362356185913,-0.37806665897369385,0.1232747733592987,2.585693120956421,-2.4351794719696045,1.8711538314819336,-0.43259909749031067]],"biases":[-1.7600518465042114,-1.4947609901428223,-0.935756504535675,-2.1833040714263916,-0.7291144132614136,-0.93437260389328,2.8586788177490234,-1.4229410886764526,-5.26322078704834,-1.9467217922210693]},{"weights":[[-3.403964042663574,0.998288631439209,-0.21681718528270721,-1.8040598630905151,1.4295393228530884,-0.08309275656938553,2.3152480125427246,-2.421799898147583,6.887575626373291,-1.2823601961135864]],"biases":[-0.3734051287174225]}],"inputLookup":null,"inputLookupLength":0,"outputLookup":null,"outputLookupLength":0,"options":{"inputSize":0,"outputSize":0,"binaryThresh":0.5,"hiddenLayers":[10,10]},"trainOpts":{"activation":"sigmoid","iterations":20000,"errorThresh":0.0003,"log":true,"logPeriod":100,"leakyReluAlpha":0.01,"learningRate":0.3,"momentum":0.1,"callbackPeriod":10,"timeout":"Infinity","beta1":0.9,"beta2":0.999,"epsilon":1e-8}}